<?xml version="1.0"?>
<opencv_storage>
<stage0>
  <maxWeakCount>10</maxWeakCount>
  <stageThreshold>-2.1956748962402344e+00</stageThreshold>
  <weakClassifiers>
    <_>
      <internalNodes>
        0 -1 151891 -1.9043933600187302e-02</internalNodes>
      <leafValues>
        -9.8450946807861328e-01 -5.1650941371917725e-01</leafValues></_>
    <_>
      <internalNodes>
        0 -1 159734 -1.1796606704592705e-02</internalNodes>
      <leafValues>
        -9.6215009689331055e-01 -9.6720635890960693e-02</leafValues></_>
    <_>
      <internalNodes>
        0 -1 128073 -9.8982289433479309e-02</internalNodes>
      <leafValues>
        -9.4603407382965088e-01 8.3012832328677177e-03</leafValues></_>
    <_>
      <internalNodes>
        0 -1 143839 7.8821775969117880e-04</internalNodes>
      <leafValues>
        -3.8136395812034607e-01 4.4947761297225952e-01</leafValues></_>
    <_>
      <internalNodes>
        0 -1 143508 -8.2828436279669404e-04</internalNodes>
      <leafValues>
        5.4107791185379028e-01 -2.5573971867561340e-01</leafValues></_>
    <_>
      <internalNodes>
        0 -1 48535 -6.2130028381943703e-03</internalNodes>
      <leafValues>
        6.1796516180038452e-01 -1.6621470451354980e-01</leafValues></_>
    <_>
      <internalNodes>
        0 -1 143500 -2.6380619965493679e-04</internalNodes>
      <leafValues>
        5.3802353143692017e-01 -2.4287880957126617e-01</leafValues></_>
    <_>
      <internalNodes>
        0 -1 42464 1.3768287375569344e-02</internalNodes>
      <leafValues>
        -1.9994878768920898e-01 5.9367752075195313e-01</leafValues></_>
    <_>
      <internalNodes>
        0 -1 30665 -1.2880146503448486e-02</internalNodes>
      <leafValues>
        5.1050049066543579e-01 -2.1725401282310486e-01</leafValues></_>
    <_>
      <internalNodes>
        0 -1 148090 1.2098579667508602e-02</internalNodes>
      <leafValues>
        -1.7907963693141937e-01 6.2617188692092896e-01</leafValues></_></weakClassifiers></stage0>
</opencv_storage>
